#mdl#2#93
#rdr#8/0/0
11:*1:%x[-2,0],
11:*2:%x[-1,0],
11:*3:%x[ 0,0],
11:*4:%x[ 1,0],
11:*5:%x[ 2,0],
19:*6:%x[-1,0]/%x[0,0],
19:*7:%x[ 1,0]/%x[0,0],
27:*8:%x[-1,0]/%x[0,0]/%x[1,0],
#qrk#6
1:1,
1:2,
1:4,
1:3,
1:5,
1:6,
#qrk#184
7:*1:_x-2,
7:*2:_x-1,
4:*3:1,
4:*4:2,
4:*5:3,
9:*6:_x-1/1,
6:*7:2/1,
11:*8:_x-1/1/2,
7:*1:_x-1,
4:*2:1,
4:*3:2,
4:*4:3,
4:*5:2,
6:*6:1/2,
6:*7:3/2,
8:*8:1/2/3,
4:*1:1,
4:*2:2,
4:*3:3,
6:*6:2/3,
6:*7:2/3,
8:*8:2/3/2,
4:*1:2,
4:*2:3,
7:*5:_x+1,
6:*6:3/2,
6:*7:2/2,
8:*8:3/2/2,
4:*1:3,
7:*4:_x+1,
7:*5:_x+2,
6:*6:2/2,
9:*7:_x+1/2,
11:*8:2/2/_x+1,
4:*4:1,
4:*5:1,
6:*7:1/1,
11:*8:_x-1/1/1,
6:*6:1/1,
8:*8:1/1/1,
9:*7:_x+1/1,
11:*8:1/1/_x+1,
9:*6:_x-1/2,
6:*7:1/2,
11:*8:_x-1/2/1,
6:*6:2/1,
8:*8:2/1/2,
8:*8:1/2/1,
11:*8:1/2/_x+1,
11:*8:_x-1/2/2,
8:*8:2/2/3,
8:*8:3/2/3,
9:*7:_x+1/3,
11:*8:2/3/_x+1,
4:*4:4,
6:*7:4/1,
11:*8:_x-1/1/4,
4:*3:4,
6:*6:1/4,
6:*7:2/4,
8:*8:1/4/2,
4:*2:4,
6:*6:4/2,
8:*8:4/2/2,
4:*1:4,
8:*8:2/2/1,
11:*8:2/1/_x+1,
9:*6:_x-1/4,
6:*7:4/4,
11:*8:_x-1/4/4,
6:*6:4/4,
6:*7:3/4,
8:*8:4/4/3,
6:*6:4/3,
6:*7:3/3,
8:*8:4/3/3,
6:*6:3/3,
8:*8:3/3/2,
11:*8:3/2/_x+1,
9:*6:_x-1/3,
11:*8:_x-1/3/3,
8:*8:3/3/3,
4:*5:4,
6:*7:4/3,
8:*8:3/3/4,
6:*6:3/4,
9:*7:_x+1/4,
11:*8:3/4/_x+1,
11:*8:_x-1/2/3,
8:*8:2/1/1,
8:*8:1/1/2,
8:*8:1/2/2,
8:*8:4/4/4,
11:*8:4/4/_x+1,
4:*3:5,
4:*4:5,
4:*5:5,
9:*6:_x-1/5,
6:*7:5/5,
11:*8:_x-1/5/5,
4:*2:5,
6:*6:5/5,
8:*8:5/5/5,
4:*1:5,
9:*7:_x+1/5,
11:*8:5/5/_x+1,
6:*7:4/5,
11:*8:_x-1/5/4,
6:*6:5/4,
8:*8:5/4/4,
11:*8:3/3/_x+1,
8:*8:2/2/2,
6:*7:5/4,
8:*8:4/4/5,
6:*6:4/5,
8:*8:4/5/4,
11:*8:5/4/_x+1,
6:*7:3/1,
8:*8:1/1/3,
6:*6:1/3,
11:*8:1/3/_x+1,
8:*8:4/5/5,
11:*8:_x-1/3/2,
8:*8:1/1/4,
11:*8:1/4/_x+1,
6:*7:5/3,
8:*8:3/3/5,
6:*6:3/5,
6:*7:3/5,
8:*8:3/5/3,
6:*6:5/3,
8:*8:5/3/3,
6:*7:4/2,
11:*8:_x-1/2/4,
6:*6:2/4,
8:*8:2/4/2,
8:*8:1/3/2,
6:*7:1/3,
8:*8:2/3/1,
6:*6:3/1,
8:*8:3/1/2,
11:*8:4/2/_x+1,
8:*8:2/2/4,
8:*8:2/4/4,
11:*8:_x-1/1/3,
11:*8:_x-1/4/3,
11:*8:_x-1/3/4,
8:*8:3/4/5,
8:*8:5/4/5,
11:*8:4/5/_x+1,
8:*8:4/4/2,
8:*8:4/2/3,
8:*8:2/3/3,
8:*8:2/3/4,
8:*8:3/4/4,
8:*8:3/4/3,
8:*8:5/5/4,
11:*8:3/1/_x+1,
8:*8:3/1/1,
8:*8:1/3/1,
8:*8:2/4/3,
11:*8:4/3/_x+1,
8:*8:4/3/4,
6:*7:5/2,
8:*8:2/2/5,
6:*6:2/5,
11:*8:2/5/_x+1,
11:*8:_x-1/3/1,
8:*8:2/4/5,
6:*7:2/5,
8:*8:4/5/2,
6:*6:5/2,
11:*8:5/2/_x+1,
8:*8:3/2/1,
8:*8:4/3/2,
8:*8:2/1/3,
11:*8:_x-1/3/5,
8:*8:5/3/2,
6:*7:1/4,
11:*8:_x-1/4/1,
6:*6:4/1,
8:*8:4/1/2,
8:*8:5/4/3,
11:*8:2/4/_x+1,
1=0x1.f771fde3b377fp-7
43=0x1.f771fde3b377fp-7
84=0x1.d7aadc3104b06p+0
85=0x1.1e335cd29285ep-3
90=0x1.234881f5bf5ddp+0
97=0x1.a27f46dc91edbp-6
126=0x1.881084553cf35p-3
127=0x1.bc652838e8b87p-3
139=0x1.0d273ed787053p-2
169=0x1.328092f2792a9p-7
171=0x1.cefa02424f87p-4
195=0x1.6f75a050d5e4fp-5
210=0x1.79b13a69e948p-2
342=0x1.7ad277a1c610dp-1
349=0x1.e848f4c925268p-2
379=0x1.0dcc3e4986a8fp-2
384=0x1.702f2ca40f7fcp+0
391=0x1.694e5327c15c3p-3
420=0x1.749603e2b0b34p-5
421=0x1.aa254e80f062ap+0
422=-0x1.de9a51e28d6a2p-5
424=-0x1.10cba65153bf7p-5
425=-0x1.2372efb641e18p-5
426=0x1.88fa100eb03b3p-1
433=0x1.e99874392b8dcp-1
463=0x1.a0ffecf7dcb4ap-2
465=0x1.d59bbb8568c54p-3
489=0x1.ba114872ecd78p-2
504=0x1.e6a1989e71b56p-4
517=0x1.6770a88272848p-2
673=0x1.11ae417e701f5p-5
678=0x1.84b6278fb01d3p-2
715=0x1.46542d264c946p-3
717=0x1.0170302cd2a0ep-3
720=0x1.05711a0e08166p-2
727=0x1.9fb576eb60bbep-1
729=0x1.0fbb5b2f3e6fbp-2
756=-0x1.a75b1240fa547p-3
757=0x1.2d8dfdaf03573p-5
759=0x1.60f0cf5d3b051p+0
760=-0x1.5d30e711b3de2p-6
769=0x1.49cb01e9fbdf2p-2
771=0x1.525e81a2555ccp-2
783=0x1.11a5b28acc925p+0
925=0x1.0abbbf52442b3p-3
927=0x1.ac3fa103bd00cp-10
937=0x1.12745dd560b4ap-1
979=0x1.48f2f17fca41p-2
986=0x1.57f170e02005ep-8
993=0x1.30ccd04ba2661p+0
1092=0x1.4749df0da45ebp-10
1098=0x1.12a427d784c3ep-5
1203=0x1.c9c3d7443a382p-3
1221=0x1.d691182bbf34ep-4
1224=0x1.40be9284063a4p-3
1231=0x1.415b3c572cd43p-4
1238=0x1.37c20a4a97a1cp-3
1245=0x1.91fc756579e9fp-6
1263=0x1.d691182bbf34ep-4
1266=0x1.40be9284063a4p-3
1273=0x1.415b3c572cd43p-4
1280=0x1.37c20a4a97a1cp-3
1287=0x1.91fc756579e9fp-6
1428=0x1.16bab17a0a06bp-2
1429=0x1.73b0ad6b755fp-12
1434=0x1.28958e825197ap-2
1441=0x1.f57236b8bbb2cp-2
1686=0x1.db9985138abc8p-7
2270=0x1.730701c75b83ep-2
2288=0x1.7d1ae946fc318p-3
2396=0x1.f49d8a448710ap+0
2414=0x1.70c0db70c0933p-1
2582=0x1.68382ef0fc21cp-1
2708=0x1.2c3a31e1dad96p-2
2960=0x1.d4591a9c2bdaap-5
3952=0x1.5ea065fa4cb2p+0
3953=0x1.cf956a955d745p-3
3982=0x1.bbcd7e8cb30dap-3
3989=0x1.64bd208f87925p-1
3995=0x1.2f2cb882ac961p-2
4024=0x1.2168b813f44ddp-3
4031=0x1.19d84de59ed04p-2
4036=0x1.e123fde423e1cp-5
4121=0x1.44fe1c679c132p-4
4157=0x1.3df21fc01dadp-4
4204=0x1.58037fcaf0a2cp-4
4205=0x1.3706928ce860ap-5
4234=0x1.93d8c421f0f48p-1
4241=0x1.26d4fc75686f5p-1
4247=0x1.6a699c39ab662p-4
4276=0x1.2c816ef746a4p-4
4283=0x1.cb5d1c2b1b03ap-2
4367=0x1.2dfef12da7d35p-2
